[0.0004247685164382162, -0.010960589425971973, -0.004634099644681446, -0.00145588517447858, -0.003581439841252382, -0.0014028078519286915, -0.0021802450436544103, -0.00407867644193943, -0.004086009588042257, -0.0020432554367813102, -0.01387843393125616, -0.0012637551947889012, -0.004753681238799521, -0.03163574056582048, -0.014220027025689953, -0.0034229238829970926, -0.003973064405159489, -0.0016422130827772644, -0.0042945663310667214, -0.003955461580777044, -0.006390685391946065, -0.0022821184054362415, -0.004502178742629745, -0.0029423095288728697, -0.0051442375296726975, -0.009277065052980074, -0.006202202015158909, -7.351838426457698e-05, -0.002027121897949099, -0.002043036899444787, -0.006338919916373036, -0.006680450302489276, -0.0023151168253786967, -0.004130869496934169, -0.003158020695199353, -0.00252606374393154, -0.0030277089108571202, 0.00032847623287389624, -0.007304337381839865, -0.006539514407560772, -0.0013821228469547628, -0.010880873748899575, -0.0015890539016997544, 0.0074160945974760225, -0.005248685238099893, -0.01288290273266582, -0.0050978912262795726, -0.0038247787165258695, -0.0052513760514112905, -0.0032747240184832706, 0.006890692149397026, 0.008677364261641665, 0.00039857888633925976, -0.00041198183889594144, 0.055163590345862636, -0.002637622413308903, -0.0003655501428508899, 0.00038354049845931915, -0.002294838813037, 0.0010264980791626912, -0.0013456039352399613, -7.95434225703713e-05, -1.6961457130077538e-05, 0.0008905551934271162, -0.0010970742098742874, 0.0014059908074874746, 0.00249825358832614, 6.631339422328772e-05, 0.003141211169029319, 0.0029078989758400627, -0.0048833499156163635, -0.001968741857493575, -0.0003595070969869846, -0.0005215392664753736]
